digraph Tree {
node [shape=box, style="filled, rounded", color="black", fontname=helvetica] ;
edge [fontname=helvetica] ;
0 [label="budget <= -0.531\ngini = 0.496\nsamples = 142\nvalue = [103, 122]\nclass = 51.645403", fillcolor="#e0f0fb"] ;
1 [label="vote_count <= -1.315\ngini = 0.078\nsamples = 65\nvalue = [94, 4]\nclass = 41.109264", fillcolor="#e68641"] ;
0 -> 1 [labeldistance=2.5, labelangle=45, headlabel="True"] ;
2 [label="release_date <= 4.5\ngini = 0.469\nsamples = 4\nvalue = [5, 3]\nclass = 41.109264", fillcolor="#f5cdb0"] ;
1 -> 2 ;
3 [label="gini = 0.0\nsamples = 3\nvalue = [5, 0]\nclass = 41.109264", fillcolor="#e58139"] ;
2 -> 3 ;
4 [label="gini = 0.0\nsamples = 1\nvalue = [0, 3]\nclass = 51.645403", fillcolor="#399de5"] ;
2 -> 4 ;
5 [label="title <= -2.252\ngini = 0.022\nsamples = 61\nvalue = [89, 1]\nclass = 41.109264", fillcolor="#e5823b"] ;
1 -> 5 ;
6 [label="gini = 0.0\nsamples = 1\nvalue = [0, 1]\nclass = 51.645403", fillcolor="#399de5"] ;
5 -> 6 ;
7 [label="gini = 0.0\nsamples = 60\nvalue = [89, 0]\nclass = 41.109264", fillcolor="#e58139"] ;
5 -> 7 ;
8 [label="budget <= 0.229\ngini = 0.132\nsamples = 77\nvalue = [9, 118]\nclass = 51.645403", fillcolor="#48a4e7"] ;
0 -> 8 [labeldistance=2.5, labelangle=-45, headlabel="False"] ;
9 [label="runtime <= 0.006\ngini = 0.49\nsamples = 17\nvalue = [9, 12]\nclass = 51.645403", fillcolor="#cee6f8"] ;
8 -> 9 ;
10 [label="gini = 0.298\nsamples = 9\nvalue = [2, 9]\nclass = 51.645403", fillcolor="#65b3eb"] ;
9 -> 10 ;
11 [label="gini = 0.42\nsamples = 8\nvalue = [7, 3]\nclass = 41.109264", fillcolor="#f0b78e"] ;
9 -> 11 ;
12 [label="gini = 0.0\nsamples = 60\nvalue = [0, 106]\nclass = 51.645403", fillcolor="#399de5"] ;
8 -> 12 ;
}