digraph Tree {
node [shape=box, style="filled, rounded", color="black", fontname=helvetica] ;
edge [fontname=helvetica] ;
0 [label="Action & Adventure <= 0.5\ngini = 0.399\nsamples = 513\nvalue = [172, 603, 33, 2]\nclass = 1.0", fillcolor="#83ed79"] ;
1 [label="Comedy <= 0.5\ngini = 0.468\nsamples = 292\nvalue = [135, 295, 13, 2]\nclass = 1.0", fillcolor="#a0f299"] ;
0 -> 1 [labeldistance=2.5, labelangle=45, headlabel="True"] ;
2 [label="runtime <= 90.5\ngini = 0.499\nsamples = 218\nvalue = [113, 208, 12, 2]\nclass = 1.0", fillcolor="#b0f4aa"] ;
1 -> 2 ;
3 [label="None <= 0.5\ngini = 0.408\nsamples = 21\nvalue = [25, 10, 0, 0]\nclass = 1.0", fillcolor="#efb388"] ;
2 -> 3 ;
4 [label="gini = 0.473\nsamples = 16\nvalue = [16, 10, 0, 0]\nclass = 1.0", fillcolor="#f5d0b5"] ;
3 -> 4 ;
5 [label="gini = 0.0\nsamples = 5\nvalue = [9, 0, 0, 0]\nclass = 1.0", fillcolor="#e58139"] ;
3 -> 5 ;
6 [label="Horror <= 0.5\ngini = 0.477\nsamples = 197\nvalue = [88, 198, 12, 2]\nclass = 1.0", fillcolor="#a0f298"] ;
2 -> 6 ;
7 [label="gini = 0.459\nsamples = 181\nvalue = [76, 188, 10, 2]\nclass = 1.0", fillcolor="#98f090"] ;
6 -> 7 ;
8 [label="gini = 0.569\nsamples = 16\nvalue = [12, 10, 2, 0]\nclass = 1.0", fillcolor="#fbede3"] ;
6 -> 8 ;
9 [label="vote_average <= 7.5\ngini = 0.334\nsamples = 74\nvalue = [22, 87, 1, 0]\nclass = 1.0", fillcolor="#77ec6d"] ;
1 -> 9 ;
10 [label="popularity <= 3.0\ngini = 0.294\nsamples = 68\nvalue = [17, 84, 1, 0]\nclass = 1.0", fillcolor="#6eeb63"] ;
9 -> 10 ;
11 [label="gini = 0.0\nsamples = 1\nvalue = [2, 0, 0, 0]\nclass = 1.0", fillcolor="#e58139"] ;
10 -> 11 ;
12 [label="gini = 0.272\nsamples = 67\nvalue = [15, 84, 1, 0]\nclass = 1.0", fillcolor="#6aea5e"] ;
10 -> 12 ;
13 [label="popularity <= 17.5\ngini = 0.469\nsamples = 6\nvalue = [5, 3, 0, 0]\nclass = 1.0", fillcolor="#f5cdb0"] ;
9 -> 13 ;
14 [label="gini = 0.278\nsamples = 4\nvalue = [5, 1, 0, 0]\nclass = 1.0", fillcolor="#ea9a61"] ;
13 -> 14 ;
15 [label="gini = 0.0\nsamples = 2\nvalue = [0, 2, 0, 0]\nclass = 1.0", fillcolor="#47e539"] ;
13 -> 15 ;
16 [label="vote_count <= 1017.0\ngini = 0.275\nsamples = 221\nvalue = [37, 308, 20, 0]\nclass = 1.0", fillcolor="#67ea5b"] ;
0 -> 16 [labeldistance=2.5, labelangle=-45, headlabel="False"] ;
17 [label="gini = 0.0\nsamples = 1\nvalue = [3, 0, 0, 0]\nclass = 1.0", fillcolor="#e58139"] ;
16 -> 17 ;
18 [label="budget <= 270871840.0\ngini = 0.264\nsamples = 220\nvalue = [34, 308, 20, 0]\nclass = 1.0", fillcolor="#65e95a"] ;
16 -> 18 ;
19 [label="runtime <= 89.5\ngini = 0.249\nsamples = 212\nvalue = [33, 301, 16, 0]\nclass = 1.0", fillcolor="#63e958"] ;
18 -> 19 ;
20 [label="gini = 0.48\nsamples = 8\nvalue = [6, 4, 0, 0]\nclass = 1.0", fillcolor="#f6d5bd"] ;
19 -> 20 ;
21 [label="gini = 0.228\nsamples = 204\nvalue = [27, 297, 16, 0]\nclass = 1.0", fillcolor="#60e954"] ;
19 -> 21 ;
22 [label="revenue <= 885934656.0\ngini = 0.542\nsamples = 8\nvalue = [1, 7, 4, 0]\nclass = 1.0", fillcolor="#baf5b5"] ;
18 -> 22 ;
23 [label="gini = 0.32\nsamples = 2\nvalue = [1, 0, 4, 0]\nclass = 1.0", fillcolor="#6ab6ec"] ;
22 -> 23 ;
24 [label="gini = 0.0\nsamples = 6\nvalue = [0, 7, 0, 0]\nclass = 1.0", fillcolor="#47e539"] ;
22 -> 24 ;
}